  // Save the following content as TrainedModel.h
#ifndef TRAINED_MODEL_H
#define TRAINED_MODEL_H
const int SAVED_WEIGHTS_CNT = 1363;
// The trained weight array (Weights & Biases)
const float SAVED_WEIGHTS[] = {
0.380002, 0.010837, 0.182981, 0.109570, -0.243142, -0.484536, -0.585236, 0.252524, -0.319746, 0.687704, 
  -0.862444, -0.180186, 0.759988, -0.361039, 0.961136, -0.829990, 0.815258, -0.794981, 0.843956, 0.015102, 
  0.744579, -0.333481, 0.384819, 0.113892, -0.276170, -0.936012, 0.717022, -0.802031, 0.754135, -0.101482, 
  -0.135615, 0.212536, 0.855675, 0.328571, -0.209269, -0.123062, 0.304250, 0.857727, 0.898287, -0.385329, 
  0.192966, 0.566152, -0.323939, 0.610506, 0.884393, -0.867053, 0.714174, 0.954437, 0.779292, 0.090551, 
  0.728743, -0.084455, 0.600439, 0.747411, 0.643637, -0.628548, -0.827470, 0.276312, -0.532344, -0.074557, 
  -0.985160, 0.270021, -0.157498, 0.907317, -1.000000, 0.941501, -0.477495, 0.714129, 0.162665, 0.414637, 
  -0.428050, -0.363592, 0.287903, 0.717037, 0.337780, -0.113701, -0.888210, 0.554905, 0.189385, -0.795837, 
  -0.400892, 0.901439, 0.331440, 0.895448, 0.758878, 0.401733, -0.248025, 0.226964, 0.726281, -0.727657,
  -0.120630, -0.450856, -0.626381, 0.012329, 0.141020, 0.345656, 0.247253, -0.877404, 0.100913, 0.127908, 
  0.073162, -0.791533, 0.199066, -0.447352, -0.315286, 0.480578, 0.927684, -0.377055, -0.247226, 0.119344, 
  -0.054723, 0.942740, 0.268261, -0.291105, -0.253998, -0.320038, -0.994646, 0.468194, 0.180915, 0.199542, 
  0.754211, -0.386101, -0.973541, 0.997989, 0.069183, 0.661174, 0.857441, -0.994072, -0.098204, -0.579759, 
  -0.390950, 0.873116, -0.775162, -0.348722, -0.756777, 0.833705, 0.761855, 0.796386, -0.494349, 0.057564, 
  0.917892, -0.513957, -0.186756, 0.929085, 0.830158, 0.420677, -0.801929, 0.382774, 0.725259, -0.502712, 
  -0.456729, 0.937911, -0.797829, -0.149148, 0.799184, 0.865051, -0.779162, 0.828253, -0.231465, 0.583598, 
  -0.816719, -0.342355, -0.990701, 0.840435, 0.228563, -0.587678, -0.783913, -0.461219, -0.717525, 0.040434, 
  0.182733, -0.560510, 0.250945, 0.969558, 0.073018, -0.684574, 0.641289, 0.629512, -0.409043, 0.037788, 
  -0.936630, -0.281015, -0.385810, -0.948805, 0.472089, 0.822705, 0.814480, -0.484802, -0.046615, -0.805307, 
  -0.453187, 0.559990, 0.692563, -0.689544, 0.452799, 0.660551, -0.718510, 0.851300, -0.454902, 0.101345, 
  -0.030374, 0.598791, -0.996439, 0.862501, -0.908257, -0.794871, 0.490636, -0.304273, 0.466971, 0.997895, 
  -0.330789, -0.675035, 0.965030, 0.282916, -0.731425, 0.126460, -0.626395, -0.844727, 0.199107, 0.864679, 
  -0.156888, -0.676667, -0.129305, 0.083893, 0.116122, 0.928198, -0.065674, -0.809772, -0.397477, 0.101670, 
  -0.804695, -0.874544, -0.253187, -0.999926, -0.525199, 0.038264, -0.356405, 0.885467, -0.434537, -0.572602, 
  0.142589, -0.484132, 0.768892, -0.986739, -0.236767, -0.365443, 0.137883, -0.411755, -0.108275, 0.022504, 
  -0.532747, 0.987413, 0.031659, -0.878910, 0.030749, 0.062460, -0.924445, -0.517805, 0.930503, 0.104264, 
  -0.238139, 0.321785, 0.791281, -0.200533, -0.309634, -0.200270, -0.001213, 0.335673, -0.361211, -0.508520, 
  0.219506, 0.011401, 0.138835, 0.214546, 0.197819, 0.983411, -0.731265, 0.074491, -0.949384, -0.167323, 
  -0.505302, -0.635426, -0.836160, 0.917571, 0.022488, 0.841277, 0.271137, 0.010201, 0.746087, 0.341972, 
  0.965541, -0.842066, -0.429252, -0.434736, -0.003244, -0.939155, 0.470569, 0.280314, -0.329326, -0.624393, 
  0.413294, 0.748603, -0.451010, 0.718229, -0.525155, -0.335817, -0.136660, 0.533172, 0.113262, -0.768565, 
  0.082520, 0.346094, 0.186823, 0.374476, 0.893979, 0.732905, 0.342669, 0.074320, 0.242062, -0.642786, 
  0.303269, -0.833402, -0.229642, 0.396752, -0.364395, -0.844438, -0.578628, 0.673226, -0.711022, -0.596969, 
  0.596664, 0.935455, -0.780133, 0.848981, -0.855121, -0.450434, 0.028674, -0.168268, -0.160643, 0.007470, 
  0.388903, 0.363313, -0.695769, 0.295451, -0.508695, -0.813575, 0.808232, -0.781904, 0.920667, 0.233928, 
  0.575769, -0.429870, 0.612507, 0.254018, 0.007199, 0.435390, -0.437241, -0.616684, -0.664351, -0.095856, 
  -0.950206, 0.316924, 0.090104, 0.882638, -0.973264, -0.711653, 0.875739, 0.027789, 0.399977, 0.618883, 
  -0.861441, 0.635754, -0.580299, 0.084234, -0.924181, -0.644867, 0.028802, 0.320497, -0.437404, 0.122265, 
  0.198760, 0.604360, 0.735365, -0.408395, -0.568469, -0.645102, 0.615066, -0.676485, 0.406310, 0.740484, 
  -0.013031, -0.480777, 0.733663, -0.896854, 0.801438, 0.321163, 0.966978, -0.524948, 0.913077, 0.207812, 
  -0.914777, -0.352288, 0.030065, -0.201321, -0.205567, 0.298844, -0.000585, 0.312126, -0.662260, -0.441001, 
  0.221301, 0.239609, 0.666724, -0.926976, 0.922442, 0.756541, -0.248609, 0.953681, 0.867217, 0.361269, 
  -0.132105, -0.855891, 0.321123, 0.335975, -0.327288, -0.697107, -0.962759, -0.899893, 0.021708, -0.922744, 
  0.165971, -0.291888, 0.831289, 0.607128, -0.183154, 0.786120, 0.582573, 0.809118, -0.597196, 0.268863, 
  0.062959, 0.551178, 0.519747, 0.256985, 0.671345, -0.768758, -0.033818, 0.495533, -0.242983, -0.484434, 
  -0.095253, -0.060583, -0.041481, -0.032169, -0.221362, 0.607661, -0.343887, 0.148624, -0.777227, 0.297779, 
  -0.561867, 0.382929, 0.178581, -0.539861, -0.361309, 0.719414, -0.938430, -0.551683, -0.051663, 0.242221, 
  -0.511387, 0.040385, 0.619702, -0.436046, 0.354151, 0.527101, 0.024338, -0.415398, 0.753390, 0.788420, 
  -0.756127, -0.805725, 0.334454, -0.180268, 0.748855, 0.769486, 0.023106, -0.964936, -0.474054, 0.289327, 
  -0.338296, -0.739868, -0.198494, 0.755871, -0.069211, -0.722383, 0.991210, 0.632263, -0.176316, 0.981847, 
  0.170750, -0.368289, 0.045402, -0.380188, -0.079541, 0.417482, -0.686369, 0.640822, 0.099165, 0.172913, 
  -0.104437, -0.516864, -0.817320, 0.991533, -0.196529, -0.670271, 0.440724, 0.365942, -0.146552, -0.574326, 
  -0.846428, 0.171647, -0.554118, -0.763146, 0.598008, 0.579578, 0.868985, 0.249638, 0.494141, 0.287779, 
  -0.455199, 0.431910, 0.370573, -0.832100, -0.121261, -0.636531, 0.732613, 0.765407, 0.519749, -0.113073, 
  -0.224735, 0.958388, 0.965877, 0.247409, 0.479670, 0.355302, -0.712709, -0.964333, -0.125494, -0.023456, 
  0.797787, 0.992279, -0.582775, -0.890178, 0.567255, -0.376583, -0.476499, 0.889341, 0.880700, 0.363756, 
  0.208848, 0.066028, -0.206337, 0.332303, 0.037965, 0.316813, -0.118002, -0.175669, 0.715335, -0.499212, 
  -0.012306, -0.597463, 0.756142, 0.899241, 0.775641, 0.073196, 0.835293, -0.300124, -0.847904, -0.952397, 
  -0.974696, 0.521815, -0.894204, 0.752403, 0.231312, -0.551559, 0.983235, 0.282181, -0.288880, -0.798385, 
  0.813528, 0.667639, -0.423220, -0.253196, 0.156167, 0.244276, -0.252334, 0.690777, 0.928390, -0.060170, 
  0.164606, -0.810220, -0.827471, 0.032206, -0.544254, 0.684514, -0.203465, -0.093900, 0.959769, -0.672924, 
  -0.123528, 0.200118, -0.916342, -0.597103, -0.897872, 0.133126, -0.186226, 0.093139, -0.413950, 0.380535, 
  -0.531399, -0.141786, -0.474519, -0.319799, 0.931587, 0.579382, 0.130168, -0.204695, 0.241485, -0.262748, 
  -0.472578, -0.442625, 0.975760, -0.943789, 0.313148, 0.628608, -0.184462, -0.335476, 0.971618, 0.124338, 
  -0.740660, 0.723833, -0.358152, 0.942186, -0.740435, -0.517365, -0.741761, -0.481507, 0.189452, 0.031986, 
  0.725836, 0.648845, -0.965763, 0.511558, -0.659340, -0.334552, 0.203408, -0.003894, -0.041009, -0.841306, 
  -0.649145, -0.503879, -0.549285, 0.058309, 0.313366, -0.838669, -0.364198, -0.257511, 0.082603, 0.569905, 
  -0.205137, 0.244181, -0.537433, 0.207586, -0.174823, 0.859485, 0.491548, 0.922837, -0.472081, -0.880210, 
  0.495629, -0.470947, 0.136424, -0.074114, 0.278300, -0.814267, -0.829184, -0.215350, -0.475068, 0.251774, 
  0.911791, 0.754702, 0.025151, 0.359240, 0.293826, 0.118355, 0.958768, -0.955935, 0.428262, -0.635498, 
  0.747152, 0.170848, 0.675640, -0.618859, 0.511455, 0.386975, -0.248365, -0.657687, 0.785466, -0.034211,
  0.356555, -0.981546, 0.839192, 0.386019, -0.944560, 0.324226, 0.194755, 0.656755, -0.549878, 0.044755, 
  0.054220, -0.483140, 0.593143, -0.706196, 0.024471, 0.949669, 0.202424, 0.419941, 0.286051, 0.208233, 
  0.444931, 0.596289, 0.505707, 0.086688, 0.241345, 0.648515, 0.397677, -0.098562, -0.110696, -0.997899, 
  0.950735, -0.318259, 0.785820, 0.203825, -0.976921, -0.147807, 0.582194, 0.312903, -0.553947, 0.703994, 
  -0.582820, 0.363354, 0.434830, 0.698710, -0.561570, 0.122481, 0.628528, -0.078454, -0.247072, -0.590837, 
  -0.702323, -0.535735, 0.052408, -0.156894, 0.284251, -0.485372, -0.631969, 0.827226, -0.520354, 0.399385, 
  -0.007965, 0.029364, -0.955389, 0.137652, -0.412749, -0.350354, 0.271273, 0.492658, -0.168244, -0.187978, 
  -0.858251, 0.093344, -0.834998, 0.972798, 0.919193, -0.489043, 0.625852, 0.171816, 0.006274, -0.334772, 
  -0.760620, -0.032538, 0.131512, -0.745964, 0.974243, 0.335060, 0.023565, 0.704952, 0.365672, 0.293276, 
  0.171618, -0.289266, -0.479088, -0.224225, 0.878124, -0.623930, -0.630128, 0.000585, 0.217463, 0.508734, 
  0.011439, 0.699120, 0.449685, 0.961282, 0.266438, -0.211547, -0.713321, -0.942538, -0.789940, -0.351010, 
  0.683856, -0.414146, 0.380088, 0.145448, 0.931411, -0.291440, 0.442835, -0.501088, -0.903016, 0.568680, 
  -0.118638, -0.658559, 0.751515, -0.334311, -0.001060, -0.567109, 0.480247, 0.026640, -0.881272, -0.532633, 
  0.852285, 0.719371, -0.715618, 0.900688, -0.520432, 0.577572, -0.330767, -0.731604, 0.293278, -0.556776, 
  -0.643327, -0.048358, -0.158544, -0.192879, -0.280725, -0.116359, 0.954026, -0.690645, 0.015648, -0.082766, 
  0.898727, -0.137777, -0.279484, -0.303800, -0.610387, 0.007714, 0.777813, 0.769898, 0.459854, -0.693699, 
  -0.367054, 0.056475, -0.145466, 0.470776, 0.852726, 0.589680, 0.911555, -0.727035, -0.058388, -0.305781, 
  -0.504750, -0.329245, -0.868871, 0.124867, -0.037457, 0.835639, 0.760686, -0.077743, 0.264946, 0.645392, 
  0.262127, 0.326544, -0.691033, 0.952173, 0.922808, 0.153218, 0.355687, 0.344779, -0.980169, 0.482597, 
  -0.252038, 0.597853, 0.843624, 0.287691, -0.037806, -0.910754, 0.207821, 0.746436, -0.391355, 0.556417, 
  0.836013, -0.295071, 0.894607, -0.673459, 0.369558, 0.520520, -0.347952, 0.904827, -0.868168, 0.879493, 
  -0.642239, 0.878636, -0.023067, -0.679108, -0.590261, 0.221973, -0.933653, 0.947071, -0.282285, 0.079019, 
  -0.477737, -0.204309, -0.754247, 0.730136, 0.003590, 0.080138, 0.769612, 0.363257, -0.253244, -0.312108, 
  -0.826805, 0.818258, 0.525314, 0.318302, -0.040266, -0.691716, 0.733561, 0.158269, 0.232905, 0.400907, 
  -0.160732, -0.244883, 0.510104, -0.847726, -0.475680, 0.142224, 0.993782, -0.259207, 0.910280, 0.593206, 
  0.700677, -0.248928, 0.335641, 0.550265, 0.446825, 0.516689, -0.747212, 0.514770, 0.567602, -0.088055, 
  -0.102843, -0.056511, -0.053595, 0.352746, 0.626831, -0.423633, -0.820066, 0.089718, 0.125027, -0.372248, 
  -0.976573, -0.042845, -0.062988, -0.106490, 0.671200, -0.703163, 0.367699, 0.153671, -0.923639, 0.873533, 
  0.122743, -0.395475, -0.770534, 0.231414, -0.048260, 0.098218, 0.145081, -0.956665, 0.074750, -0.291344, 
  0.573748, -0.831755, -0.908604, 0.161410, -0.328853, -0.814780, 0.522284, -0.645937, 0.418143, 0.765901, 
  0.211319, 0.210998, 0.990879, -0.513861, -0.308063, 0.717664, -0.844092, -0.189513, 0.787655, -0.693225, 
  0.788093, 0.069481, 0.977791, -0.364730, 0.035407, 0.687155, -0.838826, -0.084766, -0.117333, 0.628730, 
  0.671364, 0.063708, 0.130619, -0.924006, -0.369398, -0.473925, -0.195301, -0.431332, 0.846984, -0.247395, 
  0.931544, 0.367951, -0.114622, 0.244117, 0.769662, -0.396700, 0.591698, -0.677040, 0.400732, 0.210865, 
  -0.759091, 0.128504, 0.694767, 0.125730, -0.458326, 0.257271, -0.938674, 0.248807, -0.495240, 0.933724, 
  -0.164715, -0.684488, 0.294831, -0.320134, -0.819888, -0.528550, 0.678058, 0.132652, 0.500700, -0.233676, 
  0.451519, 0.060096, 0.035269, 0.682314, -0.940481, -0.422877, 0.825422, 0.578792, -0.697557, -0.703092, 
  0.517716, -0.523032, -0.238087, -0.531260, 0.758111, 0.780063, 0.005519, 0.725950, 0.755599, -0.202350, 
  0.567067, 0.187015, -0.624759, -0.816718, 0.087449, -0.249907, -0.447430, 0.490729, -0.679206, 0.229224, 
  -0.879218, 0.073896, -0.778183, -0.390985, -0.227565, -0.944273, 0.265927, 0.330589, 0.839402, -0.861881, 
  0.945320, 0.908386, 0.362637, 0.420622, 0.258017, -0.536218, 0.819444, 0.546608, -0.541779, 0.745807, 
  -0.798921, -0.709575, 0.184710, 0.445918, 0.595488, -0.291761, 0.991570, 0.281878, -0.660174, 0.215799, 
  -0.162586, 0.202033, -0.445726, 0.406929, 0.573461, -0.626965, -0.201565, 0.413148, 0.111036, 0.987675, 
  0.180323, 0.115688, 0.822461, -0.912776, -0.685645, -0.551776, 0.498330, -0.113763, 0.656105, -0.733855, 
  -0.469949, 0.397473, -0.119752, 0.534149, 0.966241, -0.881370, 0.620961, -0.172115, -0.196207, 0.517278, 
  0.851760, 0.142715, 0.009404, -0.355862, -0.457625, 0.017002, -0.198775, -0.340121, -0.794239, 0.989830, 
  0.705242, -0.800080, -0.375966, 0.148977, 0.984892, -0.607629, 0.942672, 0.294496, 0.045651, 0.266533, 
  -0.671487, -0.098428, -0.025793, -0.959248, 0.233439, -0.680027, -0.655338, 0.774782, -0.423588, 0.302808, 
  0.459184, -0.049103, 0.386460, 0.926922, -0.487610, -0.187387, 0.621138, 0.709030, 0.857702, -0.230271, 
  0.295248, -0.197798, 0.763595, 0.525026, 0.274142, 0.284651, 0.796502, -0.555829, 0.222479, 0.931113, 
  -0.669963, -0.113890, -0.296288, 0.667589, -0.609733, 0.160417, 0.022414, 0.321065, -0.292181, -0.755711, 
  -0.377046, -0.598846, -0.856983, 0.872514, -0.725492, -0.768493, -0.876976, -0.755729, 0.215579, -0.759428, 
  -0.104197, -0.164168, -0.312526, -0.092506, -0.037999, -0.345292, 0.929828, -0.448501, 0.909926, 0.073677, 
  -0.067500, 0.974143, -0.488192, 0.957210, -0.290813, 0.642294, -0.069802, -0.226133, 0.867074, -0.844369, 
  -0.023850, 0.331498, 0.518485, -0.135019, 0.839267, -0.111558, 0.388416, 0.375393, 0.676429, -0.735237, 
  -0.164793, 0.392589, 0.296692, -0.375111, -0.552429, 0.689753, 0.190306, -0.469463, -0.060017, 0.238714, 
  -0.168052, 0.719223, -0.642646, 0.535338, 0.731006, -0.980995, -0.961272, -0.433060, -0.035673, 0.172111, 
  0.178533, 0.512234, 0.321491, 0.774973, 0.700131, -0.448715, -0.563199, -0.096975, 0.538680, 0.849576, 
  0.408291, 0.590714, -0.760775, -0.490266, -0.208630, 0.957383, -0.584809, 0.603968, 0.228740, -0.852674, 
  -0.141545, -0.156407, -0.160509, -0.622149, -0.161754, 0.500300, 0.624783, 0.815792, 1.030406, -0.120727, 
  -0.284116, -0.465135, -0.433591, -0.900236, -0.436993, -0.925063, 0.057243, -0.332285, -0.351896, 1.391260, 
  -0.132981, -0.395852, 0.418389, 0.175054, -0.142377, -0.022646, -0.053616, -0.490018, -0.183141, -0.670779, 
  0.070502, -0.125964, -0.342259, -0.148971, -1.330356, 0.723183, 0.612884, -0.609889, -1.051151, -0.574510, 
  -0.056954, 0.868934, -0.093008, 0.231451, 0.353053, 0.728121, -0.351351, -0.006837, -0.447922, -0.854456, 
  -0.132244, 0.218676, 0.829426, 0.043365, 0.114323, -0.318531, -0.372452, 0.641377, 0.951875, -0.213990, 
  -0.780079, -1.147837, -0.401900
};
#endif